digraph Tree {
node [shape=box, style="filled, rounded", color="black", fontname="helvetica"] ;
edge [fontname="helvetica"] ;
0 [label=<status_checking_acc &le; 0.167<br/>gini = 0.419<br/>samples = 40000<br/>value = [28040, 11960]<br/>class = d>, fillcolor="#f0b78d"] ;
1 [label=<duration_in_months &le; 0.375<br/>gini = 0.493<br/>samples = 21720<br/>value = [12160, 9560]<br/>class = d>, fillcolor="#f9e4d5"] ;
0 -> 1 [labeldistance=2.5, labelangle=45, headlabel="True"] ;
2 [label=<credit_history &le; -0.25<br/>gini = 0.453<br/>samples = 12240<br/>value = [8000, 4240]<br/>class = d>, fillcolor="#f3c4a2"] ;
1 -> 2 ;
3 [label=<purposre_credit_taken &le; 1.5<br/>gini = 0.375<br/>samples = 1120<br/>value = [280, 840]<br/>class = e>, fillcolor="#7bbeee"] ;
2 -> 3 ;
4 [label=<current_address_yrs &le; 0.25<br/>gini = 0.269<br/>samples = 1000<br/>value = [160, 840]<br/>class = e>, fillcolor="#5fb0ea"] ;
3 -> 4 ;
5 [label=<gini = 0.0<br/>samples = 600<br/>value = [0, 600]<br/>class = e>, fillcolor="#399de5"] ;
4 -> 5 ;
6 [label=<telephone &le; 0.5<br/>gini = 0.48<br/>samples = 400<br/>value = [160, 240]<br/>class = e>, fillcolor="#bddef6"] ;
4 -> 6 ;
7 [label=<age &le; -0.633<br/>gini = 0.278<br/>samples = 240<br/>value = [40, 200]<br/>class = e>, fillcolor="#61b1ea"] ;
6 -> 7 ;
8 [label=<gini = 0.0<br/>samples = 40<br/>value = [40, 0]<br/>class = d>, fillcolor="#e58139"] ;
7 -> 8 ;
9 [label=<gini = 0.0<br/>samples = 200<br/>value = [0, 200]<br/>class = e>, fillcolor="#399de5"] ;
7 -> 9 ;
10 [label=<dependents &le; 0.5<br/>gini = 0.375<br/>samples = 160<br/>value = [120, 40]<br/>class = d>, fillcolor="#eeab7b"] ;
6 -> 10 ;
11 [label=<gini = 0.0<br/>samples = 120<br/>value = [120, 0]<br/>class = d>, fillcolor="#e58139"] ;
10 -> 11 ;
12 [label=<gini = 0.0<br/>samples = 40<br/>value = [0, 40]<br/>class = e>, fillcolor="#399de5"] ;
10 -> 12 ;
13 [label=<gini = 0.0<br/>samples = 120<br/>value = [120, 0]<br/>class = d>, fillcolor="#e58139"] ;
3 -> 13 ;
14 [label=<duration_in_months &le; -0.542<br/>gini = 0.425<br/>samples = 11120<br/>value = [7720, 3400]<br/>class = d>, fillcolor="#f0b890"] ;
2 -> 14 ;
15 [label=<property &le; -0.25<br/>gini = 0.289<br/>samples = 3200<br/>value = [2640, 560]<br/>class = d>, fillcolor="#eb9c63"] ;
14 -> 15 ;
16 [label=<job &le; 0.5<br/>gini = 0.091<br/>samples = 1680<br/>value = [1600, 80]<br/>class = d>, fillcolor="#e68743"] ;
15 -> 16 ;
17 [label=<age &le; -0.567<br/>gini = 0.048<br/>samples = 1640<br/>value = [1600, 40]<br/>class = d>, fillcolor="#e6843e"] ;
16 -> 17 ;
18 [label=<inst_rt_income &le; 0.25<br/>gini = 0.375<br/>samples = 160<br/>value = [120, 40]<br/>class = d>, fillcolor="#eeab7b"] ;
17 -> 18 ;
19 [label=<gini = 0.0<br/>samples = 40<br/>value = [0, 40]<br/>class = e>, fillcolor="#399de5"] ;
18 -> 19 ;
20 [label=<gini = 0.0<br/>samples = 120<br/>value = [120, 0]<br/>class = d>, fillcolor="#e58139"] ;
18 -> 20 ;
21 [label=<gini = 0.0<br/>samples = 1480<br/>value = [1480, 0]<br/>class = d>, fillcolor="#e58139"] ;
17 -> 21 ;
22 [label=<gini = 0.0<br/>samples = 40<br/>value = [0, 40]<br/>class = e>, fillcolor="#399de5"] ;
16 -> 22 ;
23 [label=<age &le; 0.1<br/>gini = 0.432<br/>samples = 1520<br/>value = [1040, 480]<br/>class = d>, fillcolor="#f1bb94"] ;
15 -> 23 ;
24 [label=<purposre_credit_taken &le; -0.833<br/>gini = 0.499<br/>samples = 760<br/>value = [360, 400]<br/>class = e>, fillcolor="#ebf5fc"] ;
23 -> 24 ;
25 [label=<gini = 0.0<br/>samples = 120<br/>value = [0, 120]<br/>class = e>, fillcolor="#399de5"] ;
24 -> 25 ;
26 [label=<job &le; -0.5<br/>gini = 0.492<br/>samples = 640<br/>value = [360, 280]<br/>class = d>, fillcolor="#f9e3d3"] ;
24 -> 26 ;
27 [label=<gini = 0.0<br/>samples = 160<br/>value = [160, 0]<br/>class = d>, fillcolor="#e58139"] ;
26 -> 27 ;
28 [label=<credit_amount &le; -0.194<br/>gini = 0.486<br/>samples = 480<br/>value = [200, 280]<br/>class = e>, fillcolor="#c6e3f8"] ;
26 -> 28 ;
29 [label=<dependents &le; 0.5<br/>gini = 0.346<br/>samples = 360<br/>value = [80, 280]<br/>class = e>, fillcolor="#72b9ec"] ;
28 -> 29 ;
30 [label=<gini = 0.0<br/>samples = 240<br/>value = [0, 240]<br/>class = e>, fillcolor="#399de5"] ;
29 -> 30 ;
31 [label=<property &le; 0.75<br/>gini = 0.444<br/>samples = 120<br/>value = [80, 40]<br/>class = d>, fillcolor="#f2c09c"] ;
29 -> 31 ;
32 [label=<gini = 0.0<br/>samples = 80<br/>value = [80, 0]<br/>class = d>, fillcolor="#e58139"] ;
31 -> 32 ;
33 [label=<gini = 0.0<br/>samples = 40<br/>value = [0, 40]<br/>class = e>, fillcolor="#399de5"] ;
31 -> 33 ;
34 [label=<gini = 0.0<br/>samples = 120<br/>value = [120, 0]<br/>class = d>, fillcolor="#e58139"] ;
28 -> 34 ;
35 [label=<credit_amount &le; 1.403<br/>gini = 0.188<br/>samples = 760<br/>value = [680, 80]<br/>class = d>, fillcolor="#e89050"] ;
23 -> 35 ;
36 [label=<years_at_present_employment &le; -0.5<br/>gini = 0.111<br/>samples = 680<br/>value = [640, 40]<br/>class = d>, fillcolor="#e78945"] ;
35 -> 36 ;
37 [label=<credit_amount &le; -0.394<br/>gini = 0.375<br/>samples = 160<br/>value = [120, 40]<br/>class = d>, fillcolor="#eeab7b"] ;
36 -> 37 ;
38 [label=<purposre_credit_taken &le; -0.5<br/>gini = 0.5<br/>samples = 80<br/>value = [40, 40]<br/>class = d>, fillcolor="#ffffff"] ;
37 -> 38 ;
39 [label=<gini = 0.0<br/>samples = 40<br/>value = [0, 40]<br/>class = e>, fillcolor="#399de5"] ;
38 -> 39 ;
40 [label=<gini = 0.0<br/>samples = 40<br/>value = [40, 0]<br/>class = d>, fillcolor="#e58139"] ;
38 -> 40 ;
41 [label=<gini = 0.0<br/>samples = 80<br/>value = [80, 0]<br/>class = d>, fillcolor="#e58139"] ;
37 -> 41 ;
42 [label=<gini = 0.0<br/>samples = 520<br/>value = [520, 0]<br/>class = d>, fillcolor="#e58139"] ;
36 -> 42 ;
43 [label=<duration_in_months &le; -0.708<br/>gini = 0.5<br/>samples = 80<br/>value = [40, 40]<br/>class = d>, fillcolor="#ffffff"] ;
35 -> 43 ;
44 [label=<gini = 0.0<br/>samples = 40<br/>value = [0, 40]<br/>class = e>, fillcolor="#399de5"] ;
43 -> 44 ;
45 [label=<gini = 0.0<br/>samples = 40<br/>value = [40, 0]<br/>class = d>, fillcolor="#e58139"] ;
43 -> 45 ;
46 [label=<credit_amount &le; -0.358<br/>gini = 0.46<br/>samples = 7920<br/>value = [5080, 2840]<br/>class = d>, fillcolor="#f4c7a8"] ;
14 -> 46 ;
47 [label=<property &le; 0.25<br/>gini = 0.5<br/>samples = 2920<br/>value = [1440, 1480]<br/>class = e>, fillcolor="#fafcfe"] ;
46 -> 47 ;
48 [label=<other_debtors_guarantors &le; 0.5<br/>gini = 0.461<br/>samples = 2000<br/>value = [1280, 720]<br/>class = d>, fillcolor="#f4c8a8"] ;
47 -> 48 ;
49 [label=<credit_history &le; 0.25<br/>gini = 0.494<br/>samples = 1520<br/>value = [840, 680]<br/>class = d>, fillcolor="#fae7d9"] ;
48 -> 49 ;
50 [label=<savings_acc &le; 1.25<br/>gini = 0.498<br/>samples = 1200<br/>value = [560, 640]<br/>class = e>, fillcolor="#e6f3fc"] ;
49 -> 50 ;
51 [label=<credit_amount &le; -0.438<br/>gini = 0.454<br/>samples = 920<br/>value = [320, 600]<br/>class = e>, fillcolor="#a3d1f3"] ;
50 -> 51 ;
52 [label=<credit_amount &le; -0.512<br/>gini = 0.498<br/>samples = 680<br/>value = [320, 360]<br/>class = e>, fillcolor="#e9f4fc"] ;
51 -> 52 ;
53 [label=<purposre_credit_taken &le; 1.833<br/>gini = 0.426<br/>samples = 520<br/>value = [160, 360]<br/>class = e>, fillcolor="#91c9f1"] ;
52 -> 53 ;
54 [label=<housing &le; -0.5<br/>gini = 0.298<br/>samples = 440<br/>value = [80, 360]<br/>class = e>, fillcolor="#65b3eb"] ;
53 -> 54 ;
55 [label=<marital_status_gender &le; 0.0<br/>gini = 0.5<br/>samples = 80<br/>value = [40, 40]<br/>class = d>, fillcolor="#ffffff"] ;
54 -> 55 ;
56 [label=<gini = 0.0<br/>samples = 40<br/>value = [40, 0]<br/>class = d>, fillcolor="#e58139"] ;
55 -> 56 ;
57 [label=<gini = 0.0<br/>samples = 40<br/>value = [0, 40]<br/>class = e>, fillcolor="#399de5"] ;
55 -> 57 ;
58 [label=<marital_status_gender &le; 0.5<br/>gini = 0.198<br/>samples = 360<br/>value = [40, 320]<br/>class = e>, fillcolor="#52a9e8"] ;
54 -> 58 ;
59 [label=<gini = 0.0<br/>samples = 280<br/>value = [0, 280]<br/>class = e>, fillcolor="#399de5"] ;
58 -> 59 ;
60 [label=<job &le; -0.5<br/>gini = 0.5<br/>samples = 80<br/>value = [40, 40]<br/>class = d>, fillcolor="#ffffff"] ;
58 -> 60 ;
61 [label=<gini = 0.0<br/>samples = 40<br/>value = [40, 0]<br/>class = d>, fillcolor="#e58139"] ;
60 -> 61 ;
62 [label=<gini = 0.0<br/>samples = 40<br/>value = [0, 40]<br/>class = e>, fillcolor="#399de5"] ;
60 -> 62 ;
63 [label=<gini = 0.0<br/>samples = 80<br/>value = [80, 0]<br/>class = d>, fillcolor="#e58139"] ;
53 -> 63 ;
64 [label=<gini = 0.0<br/>samples = 160<br/>value = [160, 0]<br/>class = d>, fillcolor="#e58139"] ;
52 -> 64 ;
65 [label=<gini = 0.0<br/>samples = 240<br/>value = [0, 240]<br/>class = e>, fillcolor="#399de5"] ;
51 -> 65 ;
66 [label=<duration_in_months &le; -0.25<br/>gini = 0.245<br/>samples = 280<br/>value = [240, 40]<br/>class = d>, fillcolor="#e9965a"] ;
50 -> 66 ;
67 [label=<gini = 0.0<br/>samples = 240<br/>value = [240, 0]<br/>class = d>, fillcolor="#e58139"] ;
66 -> 67 ;
68 [label=<gini = 0.0<br/>samples = 40<br/>value = [0, 40]<br/>class = e>, fillcolor="#399de5"] ;
66 -> 68 ;
69 [label=<years_at_present_employment &le; 0.75<br/>gini = 0.219<br/>samples = 320<br/>value = [280, 40]<br/>class = d>, fillcolor="#e99355"] ;
49 -> 69 ;
70 [label=<gini = 0.0<br/>samples = 240<br/>value = [240, 0]<br/>class = d>, fillcolor="#e58139"] ;
69 -> 70 ;
71 [label=<property &le; -0.25<br/>gini = 0.5<br/>samples = 80<br/>value = [40, 40]<br/>class = d>, fillcolor="#ffffff"] ;
69 -> 71 ;
72 [label=<gini = 0.0<br/>samples = 40<br/>value = [40, 0]<br/>class = d>, fillcolor="#e58139"] ;
71 -> 72 ;
73 [label=<gini = 0.0<br/>samples = 40<br/>value = [0, 40]<br/>class = e>, fillcolor="#399de5"] ;
71 -> 73 ;
74 [label=<purposre_credit_taken &le; -0.5<br/>gini = 0.153<br/>samples = 480<br/>value = [440, 40]<br/>class = d>, fillcolor="#e78c4b"] ;
48 -> 74 ;
75 [label=<gini = 0.0<br/>samples = 40<br/>value = [0, 40]<br/>class = e>, fillcolor="#399de5"] ;
74 -> 75 ;
76 [label=<gini = 0.0<br/>samples = 440<br/>value = [440, 0]<br/>class = d>, fillcolor="#e58139"] ;
74 -> 76 ;
77 [label=<age &le; 0.3<br/>gini = 0.287<br/>samples = 920<br/>value = [160, 760]<br/>class = e>, fillcolor="#63b2ea"] ;
47 -> 77 ;
78 [label=<marital_status_gender &le; -1.5<br/>gini = 0.111<br/>samples = 680<br/>value = [40, 640]<br/>class = e>, fillcolor="#45a3e7"] ;
77 -> 78 ;
79 [label=<current_address_yrs &le; -0.5<br/>gini = 0.5<br/>samples = 80<br/>value = [40, 40]<br/>class = d>, fillcolor="#ffffff"] ;
78 -> 79 ;
80 [label=<gini = 0.0<br/>samples = 40<br/>value = [40, 0]<br/>class = d>, fillcolor="#e58139"] ;
79 -> 80 ;
81 [label=<gini = 0.0<br/>samples = 40<br/>value = [0, 40]<br/>class = e>, fillcolor="#399de5"] ;
79 -> 81 ;
82 [label=<gini = 0.0<br/>samples = 600<br/>value = [0, 600]<br/>class = e>, fillcolor="#399de5"] ;
78 -> 82 ;
83 [label=<dependents &le; 0.5<br/>gini = 0.5<br/>samples = 240<br/>value = [120, 120]<br/>class = d>, fillcolor="#ffffff"] ;
77 -> 83 ;
84 [label=<gini = 0.0<br/>samples = 120<br/>value = [120, 0]<br/>class = d>, fillcolor="#e58139"] ;
83 -> 84 ;
85 [label=<gini = 0.0<br/>samples = 120<br/>value = [0, 120]<br/>class = e>, fillcolor="#399de5"] ;
83 -> 85 ;
86 [label=<age &le; 1.167<br/>gini = 0.396<br/>samples = 5000<br/>value = [3640, 1360]<br/>class = d>, fillcolor="#efb083"] ;
46 -> 86 ;
87 [label=<savings_acc &le; 0.25<br/>gini = 0.364<br/>samples = 4520<br/>value = [3440, 1080]<br/>class = d>, fillcolor="#eda977"] ;
86 -> 87 ;
88 [label=<credit_amount &le; -0.168<br/>gini = 0.422<br/>samples = 3040<br/>value = [2120, 920]<br/>class = d>, fillcolor="#f0b88f"] ;
87 -> 88 ;
89 [label=<property &le; -0.25<br/>gini = 0.198<br/>samples = 720<br/>value = [640, 80]<br/>class = d>, fillcolor="#e89152"] ;
88 -> 89 ;
90 [label=<age &le; -0.467<br/>gini = 0.48<br/>samples = 200<br/>value = [120, 80]<br/>class = d>, fillcolor="#f6d5bd"] ;
89 -> 90 ;
91 [label=<gini = 0.0<br/>samples = 80<br/>value = [0, 80]<br/>class = e>, fillcolor="#399de5"] ;
90 -> 91 ;
92 [label=<gini = 0.0<br/>samples = 120<br/>value = [120, 0]<br/>class = d>, fillcolor="#e58139"] ;
90 -> 92 ;
93 [label=<gini = 0.0<br/>samples = 520<br/>value = [520, 0]<br/>class = d>, fillcolor="#e58139"] ;
89 -> 93 ;
94 [label=<status_checking_acc &le; -0.167<br/>gini = 0.462<br/>samples = 2320<br/>value = [1480, 840]<br/>class = d>, fillcolor="#f4c9a9"] ;
88 -> 94 ;
95 [label=<age &le; 0.633<br/>gini = 0.5<br/>samples = 1360<br/>value = [680, 680]<br/>class = d>, fillcolor="#ffffff"] ;
94 -> 95 ;
96 [label=<property &le; -0.25<br/>gini = 0.495<br/>samples = 1240<br/>value = [680, 560]<br/>class = d>, fillcolor="#fae9dc"] ;
95 -> 96 ;
97 [label=<other_debtors_guarantors &le; 1.5<br/>gini = 0.375<br/>samples = 320<br/>value = [80, 240]<br/>class = e>, fillcolor="#7bbeee"] ;
96 -> 97 ;
98 [label=<foreign_worker &le; 0.5<br/>gini = 0.245<br/>samples = 280<br/>value = [40, 240]<br/>class = e>, fillcolor="#5aade9"] ;
97 -> 98 ;
99 [label=<gini = 0.0<br/>samples = 240<br/>value = [0, 240]<br/>class = e>, fillcolor="#399de5"] ;
98 -> 99 ;
100 [label=<gini = 0.0<br/>samples = 40<br/>value = [40, 0]<br/>class = d>, fillcolor="#e58139"] ;
98 -> 100 ;
101 [label=<gini = 0.0<br/>samples = 40<br/>value = [40, 0]<br/>class = d>, fillcolor="#e58139"] ;
97 -> 101 ;
102 [label=<inst_rt_income &le; -0.75<br/>gini = 0.454<br/>samples = 920<br/>value = [600, 320]<br/>class = d>, fillcolor="#f3c4a3"] ;
96 -> 102 ;
103 [label=<gini = 0.0<br/>samples = 240<br/>value = [240, 0]<br/>class = d>, fillcolor="#e58139"] ;
102 -> 103 ;
104 [label=<duration_in_months &le; -0.375<br/>gini = 0.498<br/>samples = 680<br/>value = [360, 320]<br/>class = d>, fillcolor="#fcf1e9"] ;
102 -> 104 ;
105 [label=<property &le; 0.75<br/>gini = 0.245<br/>samples = 280<br/>value = [240, 40]<br/>class = d>, fillcolor="#e9965a"] ;
104 -> 105 ;
106 [label=<gini = 0.0<br/>samples = 240<br/>value = [240, 0]<br/>class = d>, fillcolor="#e58139"] ;
105 -> 106 ;
107 [label=<gini = 0.0<br/>samples = 40<br/>value = [0, 40]<br/>class = e>, fillcolor="#399de5"] ;
105 -> 107 ;
108 [label=<job &le; 0.5<br/>gini = 0.42<br/>samples = 400<br/>value = [120, 280]<br/>class = e>, fillcolor="#8ec7f0"] ;
104 -> 108 ;
109 [label=<other_inst_plans &le; -0.5<br/>gini = 0.219<br/>samples = 320<br/>value = [40, 280]<br/>class = e>, fillcolor="#55abe9"] ;
108 -> 109 ;
110 [label=<num_cc &le; 0.5<br/>gini = 0.444<br/>samples = 120<br/>value = [40, 80]<br/>class = e>, fillcolor="#9ccef2"] ;
109 -> 110 ;
111 [label=<gini = 0.0<br/>samples = 40<br/>value = [40, 0]<br/>class = d>, fillcolor="#e58139"] ;
110 -> 111 ;
112 [label=<gini = 0.0<br/>samples = 80<br/>value = [0, 80]<br/>class = e>, fillcolor="#399de5"] ;
110 -> 112 ;
113 [label=<gini = 0.0<br/>samples = 200<br/>value = [0, 200]<br/>class = e>, fillcolor="#399de5"] ;
109 -> 113 ;
114 [label=<gini = 0.0<br/>samples = 80<br/>value = [80, 0]<br/>class = d>, fillcolor="#e58139"] ;
108 -> 114 ;
115 [label=<gini = 0.0<br/>samples = 120<br/>value = [0, 120]<br/>class = e>, fillcolor="#399de5"] ;
95 -> 115 ;
116 [label=<credit_amount &le; -0.136<br/>gini = 0.278<br/>samples = 960<br/>value = [800, 160]<br/>class = d>, fillcolor="#ea9a61"] ;
94 -> 116 ;
117 [label=<gini = 0.0<br/>samples = 80<br/>value = [0, 80]<br/>class = e>, fillcolor="#399de5"] ;
116 -> 117 ;
118 [label=<property &le; 0.75<br/>gini = 0.165<br/>samples = 880<br/>value = [800, 80]<br/>class = d>, fillcolor="#e88e4d"] ;
116 -> 118 ;
119 [label=<gini = 0.0<br/>samples = 760<br/>value = [760, 0]<br/>class = d>, fillcolor="#e58139"] ;
118 -> 119 ;
120 [label=<marital_status_gender &le; -0.5<br/>gini = 0.444<br/>samples = 120<br/>value = [40, 80]<br/>class = e>, fillcolor="#9ccef2"] ;
118 -> 120 ;
121 [label=<gini = 0.0<br/>samples = 80<br/>value = [0, 80]<br/>class = e>, fillcolor="#399de5"] ;
120 -> 121 ;
122 [label=<gini = 0.0<br/>samples = 40<br/>value = [40, 0]<br/>class = d>, fillcolor="#e58139"] ;
120 -> 122 ;
123 [label=<marital_status_gender &le; -0.5<br/>gini = 0.193<br/>samples = 1480<br/>value = [1320, 160]<br/>class = d>, fillcolor="#e89051"] ;
87 -> 123 ;
124 [label=<purposre_credit_taken &le; 0.167<br/>gini = 0.469<br/>samples = 320<br/>value = [200, 120]<br/>class = d>, fillcolor="#f5cdb0"] ;
123 -> 124 ;
125 [label=<duration_in_months &le; -0.375<br/>gini = 0.48<br/>samples = 200<br/>value = [80, 120]<br/>class = e>, fillcolor="#bddef6"] ;
124 -> 125 ;
126 [label=<purposre_credit_taken &le; -0.5<br/>gini = 0.444<br/>samples = 120<br/>value = [80, 40]<br/>class = d>, fillcolor="#f2c09c"] ;
125 -> 126 ;
127 [label=<gini = 0.0<br/>samples = 80<br/>value = [80, 0]<br/>class = d>, fillcolor="#e58139"] ;
126 -> 127 ;
128 [label=<gini = 0.0<br/>samples = 40<br/>value = [0, 40]<br/>class = e>, fillcolor="#399de5"] ;
126 -> 128 ;
129 [label=<gini = 0.0<br/>samples = 80<br/>value = [0, 80]<br/>class = e>, fillcolor="#399de5"] ;
125 -> 129 ;
130 [label=<gini = 0.0<br/>samples = 120<br/>value = [120, 0]<br/>class = d>, fillcolor="#e58139"] ;
124 -> 130 ;
131 [label=<credit_amount &le; -0.315<br/>gini = 0.067<br/>samples = 1160<br/>value = [1120, 40]<br/>class = d>, fillcolor="#e68640"] ;
123 -> 131 ;
132 [label=<credit_amount &le; -0.328<br/>gini = 0.444<br/>samples = 120<br/>value = [80, 40]<br/>class = d>, fillcolor="#f2c09c"] ;
131 -> 132 ;
133 [label=<gini = 0.0<br/>samples = 80<br/>value = [80, 0]<br/>class = d>, fillcolor="#e58139"] ;
132 -> 133 ;
134 [label=<gini = 0.0<br/>samples = 40<br/>value = [0, 40]<br/>class = e>, fillcolor="#399de5"] ;
132 -> 134 ;
135 [label=<gini = 0.0<br/>samples = 1040<br/>value = [1040, 0]<br/>class = d>, fillcolor="#e58139"] ;
131 -> 135 ;
136 [label=<property &le; -0.25<br/>gini = 0.486<br/>samples = 480<br/>value = [200, 280]<br/>class = e>, fillcolor="#c6e3f8"] ;
86 -> 136 ;
137 [label=<gini = 0.0<br/>samples = 80<br/>value = [80, 0]<br/>class = d>, fillcolor="#e58139"] ;
136 -> 137 ;
138 [label=<current_address_yrs &le; 0.25<br/>gini = 0.42<br/>samples = 400<br/>value = [120, 280]<br/>class = e>, fillcolor="#8ec7f0"] ;
136 -> 138 ;
139 [label=<gini = 0.0<br/>samples = 160<br/>value = [0, 160]<br/>class = e>, fillcolor="#399de5"] ;
138 -> 139 ;
140 [label=<marital_status_gender &le; -0.5<br/>gini = 0.5<br/>samples = 240<br/>value = [120, 120]<br/>class = d>, fillcolor="#ffffff"] ;
138 -> 140 ;
141 [label=<gini = 0.0<br/>samples = 80<br/>value = [80, 0]<br/>class = d>, fillcolor="#e58139"] ;
140 -> 141 ;
142 [label=<credit_history &le; 0.5<br/>gini = 0.375<br/>samples = 160<br/>value = [40, 120]<br/>class = e>, fillcolor="#7bbeee"] ;
140 -> 142 ;
143 [label=<gini = 0.0<br/>samples = 120<br/>value = [0, 120]<br/>class = e>, fillcolor="#399de5"] ;
142 -> 143 ;
144 [label=<gini = 0.0<br/>samples = 40<br/>value = [40, 0]<br/>class = d>, fillcolor="#e58139"] ;
142 -> 144 ;
145 [label=<savings_acc &le; 1.25<br/>gini = 0.493<br/>samples = 9480<br/>value = [4160, 5320]<br/>class = e>, fillcolor="#d4eaf9"] ;
1 -> 145 ;
146 [label=<inst_rt_income &le; -0.25<br/>gini = 0.472<br/>samples = 7840<br/>value = [3000, 4840]<br/>class = e>, fillcolor="#b4daf5"] ;
145 -> 146 ;
147 [label=<housing &le; 0.5<br/>gini = 0.5<br/>samples = 2880<br/>value = [1440, 1440]<br/>class = d>, fillcolor="#ffffff"] ;
146 -> 147 ;
148 [label=<telephone &le; 0.5<br/>gini = 0.493<br/>samples = 2440<br/>value = [1080, 1360]<br/>class = e>, fillcolor="#d6ebfa"] ;
147 -> 148 ;
149 [label=<current_address_yrs &le; 0.25<br/>gini = 0.486<br/>samples = 1440<br/>value = [840, 600]<br/>class = d>, fillcolor="#f8dbc6"] ;
148 -> 149 ;
150 [label=<credit_history &le; 0.75<br/>gini = 0.386<br/>samples = 920<br/>value = [680, 240]<br/>class = d>, fillcolor="#eead7f"] ;
149 -> 150 ;
151 [label=<credit_amount &le; 0.186<br/>gini = 0.32<br/>samples = 800<br/>value = [640, 160]<br/>class = d>, fillcolor="#eca06a"] ;
150 -> 151 ;
152 [label=<current_address_yrs &le; -0.25<br/>gini = 0.5<br/>samples = 160<br/>value = [80, 80]<br/>class = d>, fillcolor="#ffffff"] ;
151 -> 152 ;
153 [label=<gini = 0.0<br/>samples = 80<br/>value = [0, 80]<br/>class = e>, fillcolor="#399de5"] ;
152 -> 153 ;
154 [label=<gini = 0.0<br/>samples = 80<br/>value = [80, 0]<br/>class = d>, fillcolor="#e58139"] ;
152 -> 154 ;
155 [label=<age &le; -0.433<br/>gini = 0.219<br/>samples = 640<br/>value = [560, 80]<br/>class = d>, fillcolor="#e99355"] ;
151 -> 155 ;
156 [label=<duration_in_months &le; 1.25<br/>gini = 0.444<br/>samples = 240<br/>value = [160, 80]<br/>class = d>, fillcolor="#f2c09c"] ;
155 -> 156 ;
157 [label=<gini = 0.0<br/>samples = 120<br/>value = [120, 0]<br/>class = d>, fillcolor="#e58139"] ;
156 -> 157 ;
158 [label=<property &le; -0.25<br/>gini = 0.444<br/>samples = 120<br/>value = [40, 80]<br/>class = e>, fillcolor="#9ccef2"] ;
156 -> 158 ;
159 [label=<gini = 0.0<br/>samples = 40<br/>value = [40, 0]<br/>class = d>, fillcolor="#e58139"] ;
158 -> 159 ;
160 [label=<gini = 0.0<br/>samples = 80<br/>value = [0, 80]<br/>class = e>, fillcolor="#399de5"] ;
158 -> 160 ;
161 [label=<gini = 0.0<br/>samples = 400<br/>value = [400, 0]<br/>class = d>, fillcolor="#e58139"] ;
155 -> 161 ;
162 [label=<purposre_credit_taken &le; 1.167<br/>gini = 0.444<br/>samples = 120<br/>value = [40, 80]<br/>class = e>, fillcolor="#9ccef2"] ;
150 -> 162 ;
163 [label=<gini = 0.0<br/>samples = 80<br/>value = [0, 80]<br/>class = e>, fillcolor="#399de5"] ;
162 -> 163 ;
164 [label=<gini = 0.0<br/>samples = 40<br/>value = [40, 0]<br/>class = d>, fillcolor="#e58139"] ;
162 -> 164 ;
165 [label=<age &le; -0.3<br/>gini = 0.426<br/>samples = 520<br/>value = [160, 360]<br/>class = e>, fillcolor="#91c9f1"] ;
149 -> 165 ;
166 [label=<credit_amount &le; 0.467<br/>gini = 0.494<br/>samples = 360<br/>value = [160, 200]<br/>class = e>, fillcolor="#d7ebfa"] ;
165 -> 166 ;
167 [label=<gini = 0.0<br/>samples = 80<br/>value = [0, 80]<br/>class = e>, fillcolor="#399de5"] ;
166 -> 167 ;
168 [label=<credit_amount &le; 0.652<br/>gini = 0.49<br/>samples = 280<br/>value = [160, 120]<br/>class = d>, fillcolor="#f8e0ce"] ;
166 -> 168 ;
169 [label=<gini = 0.0<br/>samples = 120<br/>value = [120, 0]<br/>class = d>, fillcolor="#e58139"] ;
168 -> 169 ;
170 [label=<marital_status_gender &le; 0.0<br/>gini = 0.375<br/>samples = 160<br/>value = [40, 120]<br/>class = e>, fillcolor="#7bbeee"] ;
168 -> 170 ;
171 [label=<gini = 0.0<br/>samples = 120<br/>value = [0, 120]<br/>class = e>, fillcolor="#399de5"] ;
170 -> 171 ;
172 [label=<gini = 0.0<br/>samples = 40<br/>value = [40, 0]<br/>class = d>, fillcolor="#e58139"] ;
170 -> 172 ;
173 [label=<gini = 0.0<br/>samples = 160<br/>value = [0, 160]<br/>class = e>, fillcolor="#399de5"] ;
165 -> 173 ;
174 [label=<savings_acc &le; 0.25<br/>gini = 0.365<br/>samples = 1000<br/>value = [240, 760]<br/>class = e>, fillcolor="#78bced"] ;
148 -> 174 ;
175 [label=<purposre_credit_taken &le; -0.5<br/>gini = 0.245<br/>samples = 840<br/>value = [120, 720]<br/>class = e>, fillcolor="#5aade9"] ;
174 -> 175 ;
176 [label=<current_address_yrs &le; -0.25<br/>gini = 0.5<br/>samples = 240<br/>value = [120, 120]<br/>class = d>, fillcolor="#ffffff"] ;
175 -> 176 ;
177 [label=<age &le; -0.4<br/>gini = 0.375<br/>samples = 160<br/>value = [120, 40]<br/>class = d>, fillcolor="#eeab7b"] ;
176 -> 177 ;
178 [label=<gini = 0.0<br/>samples = 40<br/>value = [0, 40]<br/>class = e>, fillcolor="#399de5"] ;
177 -> 178 ;
179 [label=<gini = 0.0<br/>samples = 120<br/>value = [120, 0]<br/>class = d>, fillcolor="#e58139"] ;
177 -> 179 ;
180 [label=<gini = 0.0<br/>samples = 80<br/>value = [0, 80]<br/>class = e>, fillcolor="#399de5"] ;
176 -> 180 ;
181 [label=<gini = 0.0<br/>samples = 600<br/>value = [0, 600]<br/>class = e>, fillcolor="#399de5"] ;
175 -> 181 ;
182 [label=<years_at_present_employment &le; 0.75<br/>gini = 0.375<br/>samples = 160<br/>value = [120, 40]<br/>class = d>, fillcolor="#eeab7b"] ;
174 -> 182 ;
183 [label=<gini = 0.0<br/>samples = 120<br/>value = [120, 0]<br/>class = d>, fillcolor="#e58139"] ;
182 -> 183 ;
184 [label=<gini = 0.0<br/>samples = 40<br/>value = [0, 40]<br/>class = e>, fillcolor="#399de5"] ;
182 -> 184 ;
185 [label=<purposre_credit_taken &le; 0.667<br/>gini = 0.298<br/>samples = 440<br/>value = [360, 80]<br/>class = d>, fillcolor="#eb9d65"] ;
147 -> 185 ;
186 [label=<gini = 0.0<br/>samples = 320<br/>value = [320, 0]<br/>class = d>, fillcolor="#e58139"] ;
185 -> 186 ;
187 [label=<credit_history &le; 0.5<br/>gini = 0.444<br/>samples = 120<br/>value = [40, 80]<br/>class = e>, fillcolor="#9ccef2"] ;
185 -> 187 ;
188 [label=<gini = 0.0<br/>samples = 80<br/>value = [0, 80]<br/>class = e>, fillcolor="#399de5"] ;
187 -> 188 ;
189 [label=<gini = 0.0<br/>samples = 40<br/>value = [40, 0]<br/>class = d>, fillcolor="#e58139"] ;
187 -> 189 ;
190 [label=<current_address_yrs &le; -0.75<br/>gini = 0.431<br/>samples = 4960<br/>value = [1560, 3400]<br/>class = e>, fillcolor="#94caf1"] ;
146 -> 190 ;
191 [label=<housing &le; -0.5<br/>gini = 0.473<br/>samples = 520<br/>value = [320, 200]<br/>class = d>, fillcolor="#f5d0b5"] ;
190 -> 191 ;
192 [label=<gini = 0.0<br/>samples = 80<br/>value = [0, 80]<br/>class = e>, fillcolor="#399de5"] ;
191 -> 192 ;
193 [label=<age &le; 0.267<br/>gini = 0.397<br/>samples = 440<br/>value = [320, 120]<br/>class = d>, fillcolor="#efb083"] ;
191 -> 193 ;
194 [label=<purposre_credit_taken &le; -0.5<br/>gini = 0.219<br/>samples = 320<br/>value = [280, 40]<br/>class = d>, fillcolor="#e99355"] ;
193 -> 194 ;
195 [label=<status_checking_acc &le; -0.167<br/>gini = 0.5<br/>samples = 80<br/>value = [40, 40]<br/>class = d>, fillcolor="#ffffff"] ;
194 -> 195 ;
196 [label=<gini = 0.0<br/>samples = 40<br/>value = [0, 40]<br/>class = e>, fillcolor="#399de5"] ;
195 -> 196 ;
197 [label=<gini = 0.0<br/>samples = 40<br/>value = [40, 0]<br/>class = d>, fillcolor="#e58139"] ;
195 -> 197 ;
198 [label=<gini = 0.0<br/>samples = 240<br/>value = [240, 0]<br/>class = d>, fillcolor="#e58139"] ;
194 -> 198 ;
199 [label=<purposre_credit_taken &le; 0.833<br/>gini = 0.444<br/>samples = 120<br/>value = [40, 80]<br/>class = e>, fillcolor="#9ccef2"] ;
193 -> 199 ;
200 [label=<gini = 0.0<br/>samples = 80<br/>value = [0, 80]<br/>class = e>, fillcolor="#399de5"] ;
199 -> 200 ;
201 [label=<gini = 0.0<br/>samples = 40<br/>value = [40, 0]<br/>class = d>, fillcolor="#e58139"] ;
199 -> 201 ;
202 [label=<property &le; 0.75<br/>gini = 0.403<br/>samples = 4440<br/>value = [1240, 3200]<br/>class = e>, fillcolor="#86c3ef"] ;
190 -> 202 ;
203 [label=<age &le; 0.167<br/>gini = 0.456<br/>samples = 2960<br/>value = [1040, 1920]<br/>class = e>, fillcolor="#a4d2f3"] ;
202 -> 203 ;
204 [label=<marital_status_gender &le; -0.5<br/>gini = 0.375<br/>samples = 2080<br/>value = [520, 1560]<br/>class = e>, fillcolor="#7bbeee"] ;
203 -> 204 ;
205 [label=<years_at_present_employment &le; 0.25<br/>gini = 0.165<br/>samples = 880<br/>value = [80, 800]<br/>class = e>, fillcolor="#4da7e8"] ;
204 -> 205 ;
206 [label=<gini = 0.0<br/>samples = 680<br/>value = [0, 680]<br/>class = e>, fillcolor="#399de5"] ;
205 -> 206 ;
207 [label=<purposre_credit_taken &le; 0.167<br/>gini = 0.48<br/>samples = 200<br/>value = [80, 120]<br/>class = e>, fillcolor="#bddef6"] ;
205 -> 207 ;
208 [label=<gini = 0.0<br/>samples = 80<br/>value = [0, 80]<br/>class = e>, fillcolor="#399de5"] ;
207 -> 208 ;
209 [label=<marital_status_gender &le; -1.5<br/>gini = 0.444<br/>samples = 120<br/>value = [80, 40]<br/>class = d>, fillcolor="#f2c09c"] ;
207 -> 209 ;
210 [label=<gini = 0.0<br/>samples = 40<br/>value = [0, 40]<br/>class = e>, fillcolor="#399de5"] ;
209 -> 210 ;
211 [label=<gini = 0.0<br/>samples = 80<br/>value = [80, 0]<br/>class = d>, fillcolor="#e58139"] ;
209 -> 211 ;
212 [label=<job &le; -0.5<br/>gini = 0.464<br/>samples = 1200<br/>value = [440, 760]<br/>class = e>, fillcolor="#acd6f4"] ;
204 -> 212 ;
213 [label=<gini = 0.0<br/>samples = 160<br/>value = [0, 160]<br/>class = e>, fillcolor="#399de5"] ;
212 -> 213 ;
214 [label=<savings_acc &le; 0.75<br/>gini = 0.488<br/>samples = 1040<br/>value = [440, 600]<br/>class = e>, fillcolor="#cae5f8"] ;
212 -> 214 ;
215 [label=<other_inst_plans &le; -0.5<br/>gini = 0.469<br/>samples = 960<br/>value = [360, 600]<br/>class = e>, fillcolor="#b0d8f5"] ;
214 -> 215 ;
216 [label=<gini = 0.0<br/>samples = 200<br/>value = [0, 200]<br/>class = e>, fillcolor="#399de5"] ;
215 -> 216 ;
217 [label=<marital_status_gender &le; 0.5<br/>gini = 0.499<br/>samples = 760<br/>value = [360, 400]<br/>class = e>, fillcolor="#ebf5fc"] ;
215 -> 217 ;
218 [label=<credit_amount &le; 1.481<br/>gini = 0.492<br/>samples = 640<br/>value = [360, 280]<br/>class = d>, fillcolor="#f9e3d3"] ;
217 -> 218 ;
219 [label=<credit_amount &le; 0.372<br/>gini = 0.459<br/>samples = 560<br/>value = [360, 200]<br/>class = d>, fillcolor="#f3c7a7"] ;
218 -> 219 ;
220 [label=<property &le; 0.25<br/>gini = 0.375<br/>samples = 160<br/>value = [40, 120]<br/>class = e>, fillcolor="#7bbeee"] ;
219 -> 220 ;
221 [label=<gini = 0.0<br/>samples = 120<br/>value = [0, 120]<br/>class = e>, fillcolor="#399de5"] ;
220 -> 221 ;
222 [label=<gini = 0.0<br/>samples = 40<br/>value = [40, 0]<br/>class = d>, fillcolor="#e58139"] ;
220 -> 222 ;
223 [label=<age &le; -0.3<br/>gini = 0.32<br/>samples = 400<br/>value = [320, 80]<br/>class = d>, fillcolor="#eca06a"] ;
219 -> 223 ;
224 [label=<gini = 0.0<br/>samples = 200<br/>value = [200, 0]<br/>class = d>, fillcolor="#e58139"] ;
223 -> 224 ;
225 [label=<telephone &le; 0.5<br/>gini = 0.48<br/>samples = 200<br/>value = [120, 80]<br/>class = d>, fillcolor="#f6d5bd"] ;
223 -> 225 ;
226 [label=<credit_amount &le; 0.555<br/>gini = 0.444<br/>samples = 120<br/>value = [40, 80]<br/>class = e>, fillcolor="#9ccef2"] ;
225 -> 226 ;
227 [label=<gini = 0.0<br/>samples = 40<br/>value = [40, 0]<br/>class = d>, fillcolor="#e58139"] ;
226 -> 227 ;
228 [label=<gini = 0.0<br/>samples = 80<br/>value = [0, 80]<br/>class = e>, fillcolor="#399de5"] ;
226 -> 228 ;
229 [label=<gini = 0.0<br/>samples = 80<br/>value = [80, 0]<br/>class = d>, fillcolor="#e58139"] ;
225 -> 229 ;
230 [label=<gini = 0.0<br/>samples = 80<br/>value = [0, 80]<br/>class = e>, fillcolor="#399de5"] ;
218 -> 230 ;
231 [label=<gini = 0.0<br/>samples = 120<br/>value = [0, 120]<br/>class = e>, fillcolor="#399de5"] ;
217 -> 231 ;
232 [label=<gini = 0.0<br/>samples = 80<br/>value = [80, 0]<br/>class = d>, fillcolor="#e58139"] ;
214 -> 232 ;
233 [label=<credit_amount &le; -0.327<br/>gini = 0.483<br/>samples = 880<br/>value = [520, 360]<br/>class = d>, fillcolor="#f7d8c2"] ;
203 -> 233 ;
234 [label=<gini = 0.0<br/>samples = 120<br/>value = [0, 120]<br/>class = e>, fillcolor="#399de5"] ;
233 -> 234 ;
235 [label=<credit_amount &le; 0.263<br/>gini = 0.432<br/>samples = 760<br/>value = [520, 240]<br/>class = d>, fillcolor="#f1bb94"] ;
233 -> 235 ;
236 [label=<gini = 0.0<br/>samples = 360<br/>value = [360, 0]<br/>class = d>, fillcolor="#e58139"] ;
235 -> 236 ;
237 [label=<credit_history &le; 0.25<br/>gini = 0.48<br/>samples = 400<br/>value = [160, 240]<br/>class = e>, fillcolor="#bddef6"] ;
235 -> 237 ;
238 [label=<purposre_credit_taken &le; -0.333<br/>gini = 0.245<br/>samples = 280<br/>value = [40, 240]<br/>class = e>, fillcolor="#5aade9"] ;
237 -> 238 ;
239 [label=<inst_rt_income &le; 0.25<br/>gini = 0.5<br/>samples = 80<br/>value = [40, 40]<br/>class = d>, fillcolor="#ffffff"] ;
238 -> 239 ;
240 [label=<gini = 0.0<br/>samples = 40<br/>value = [0, 40]<br/>class = e>, fillcolor="#399de5"] ;
239 -> 240 ;
241 [label=<gini = 0.0<br/>samples = 40<br/>value = [40, 0]<br/>class = d>, fillcolor="#e58139"] ;
239 -> 241 ;
242 [label=<gini = 0.0<br/>samples = 200<br/>value = [0, 200]<br/>class = e>, fillcolor="#399de5"] ;
238 -> 242 ;
243 [label=<gini = 0.0<br/>samples = 120<br/>value = [120, 0]<br/>class = d>, fillcolor="#e58139"] ;
237 -> 243 ;
244 [label=<years_at_present_employment &le; -0.75<br/>gini = 0.234<br/>samples = 1480<br/>value = [200, 1280]<br/>class = e>, fillcolor="#58ace9"] ;
202 -> 244 ;
245 [label=<gini = 0.0<br/>samples = 40<br/>value = [40, 0]<br/>class = d>, fillcolor="#e58139"] ;
244 -> 245 ;
246 [label=<duration_in_months &le; 1.25<br/>gini = 0.198<br/>samples = 1440<br/>value = [160, 1280]<br/>class = e>, fillcolor="#52a9e8"] ;
244 -> 246 ;
247 [label=<credit_amount &le; 0.083<br/>gini = 0.397<br/>samples = 440<br/>value = [120, 320]<br/>class = e>, fillcolor="#83c2ef"] ;
246 -> 247 ;
248 [label=<gini = 0.0<br/>samples = 160<br/>value = [0, 160]<br/>class = e>, fillcolor="#399de5"] ;
247 -> 248 ;
249 [label=<credit_amount &le; 0.341<br/>gini = 0.49<br/>samples = 280<br/>value = [120, 160]<br/>class = e>, fillcolor="#cee6f8"] ;
247 -> 249 ;
250 [label=<gini = 0.0<br/>samples = 80<br/>value = [80, 0]<br/>class = d>, fillcolor="#e58139"] ;
249 -> 250 ;
251 [label=<credit_history &le; 0.75<br/>gini = 0.32<br/>samples = 200<br/>value = [40, 160]<br/>class = e>, fillcolor="#6ab6ec"] ;
249 -> 251 ;
252 [label=<gini = 0.0<br/>samples = 160<br/>value = [0, 160]<br/>class = e>, fillcolor="#399de5"] ;
251 -> 252 ;
253 [label=<gini = 0.0<br/>samples = 40<br/>value = [40, 0]<br/>class = d>, fillcolor="#e58139"] ;
251 -> 253 ;
254 [label=<savings_acc &le; 0.25<br/>gini = 0.077<br/>samples = 1000<br/>value = [40, 960]<br/>class = e>, fillcolor="#41a1e6"] ;
246 -> 254 ;
255 [label=<gini = 0.0<br/>samples = 840<br/>value = [0, 840]<br/>class = e>, fillcolor="#399de5"] ;
254 -> 255 ;
256 [label=<age &le; -0.067<br/>gini = 0.375<br/>samples = 160<br/>value = [40, 120]<br/>class = e>, fillcolor="#7bbeee"] ;
254 -> 256 ;
257 [label=<gini = 0.0<br/>samples = 40<br/>value = [40, 0]<br/>class = d>, fillcolor="#e58139"] ;
256 -> 257 ;
258 [label=<gini = 0.0<br/>samples = 120<br/>value = [0, 120]<br/>class = e>, fillcolor="#399de5"] ;
256 -> 258 ;
259 [label=<status_checking_acc &le; -0.167<br/>gini = 0.414<br/>samples = 1640<br/>value = [1160, 480]<br/>class = d>, fillcolor="#f0b58b"] ;
145 -> 259 ;
260 [label=<num_cc &le; 0.5<br/>gini = 0.484<br/>samples = 680<br/>value = [280, 400]<br/>class = e>, fillcolor="#c4e2f7"] ;
259 -> 260 ;
261 [label=<inst_rt_income &le; -0.25<br/>gini = 0.355<br/>samples = 520<br/>value = [120, 400]<br/>class = e>, fillcolor="#74baed"] ;
260 -> 261 ;
262 [label=<property &le; 0.25<br/>gini = 0.444<br/>samples = 120<br/>value = [80, 40]<br/>class = d>, fillcolor="#f2c09c"] ;
261 -> 262 ;
263 [label=<gini = 0.0<br/>samples = 80<br/>value = [80, 0]<br/>class = d>, fillcolor="#e58139"] ;
262 -> 263 ;
264 [label=<gini = 0.0<br/>samples = 40<br/>value = [0, 40]<br/>class = e>, fillcolor="#399de5"] ;
262 -> 264 ;
265 [label=<dependents &le; 0.5<br/>gini = 0.18<br/>samples = 400<br/>value = [40, 360]<br/>class = e>, fillcolor="#4fa8e8"] ;
261 -> 265 ;
266 [label=<gini = 0.0<br/>samples = 360<br/>value = [0, 360]<br/>class = e>, fillcolor="#399de5"] ;
265 -> 266 ;
267 [label=<gini = 0.0<br/>samples = 40<br/>value = [40, 0]<br/>class = d>, fillcolor="#e58139"] ;
265 -> 267 ;
268 [label=<gini = 0.0<br/>samples = 160<br/>value = [160, 0]<br/>class = d>, fillcolor="#e58139"] ;
260 -> 268 ;
269 [label=<inst_rt_income &le; -0.75<br/>gini = 0.153<br/>samples = 960<br/>value = [880, 80]<br/>class = d>, fillcolor="#e78c4b"] ;
259 -> 269 ;
270 [label=<property &le; 0.75<br/>gini = 0.48<br/>samples = 200<br/>value = [120, 80]<br/>class = d>, fillcolor="#f6d5bd"] ;
269 -> 270 ;
271 [label=<gini = 0.0<br/>samples = 120<br/>value = [120, 0]<br/>class = d>, fillcolor="#e58139"] ;
270 -> 271 ;
272 [label=<gini = 0.0<br/>samples = 80<br/>value = [0, 80]<br/>class = e>, fillcolor="#399de5"] ;
270 -> 272 ;
273 [label=<gini = 0.0<br/>samples = 760<br/>value = [760, 0]<br/>class = d>, fillcolor="#e58139"] ;
269 -> 273 ;
274 [label=<other_inst_plans &le; -0.5<br/>gini = 0.228<br/>samples = 18280<br/>value = [15880, 2400]<br/>class = d>, fillcolor="#e99457"] ;
0 -> 274 [labeldistance=2.5, labelangle=-45, headlabel="False"] ;
275 [label=<age &le; 0.767<br/>gini = 0.411<br/>samples = 3040<br/>value = [2160, 880]<br/>class = d>, fillcolor="#f0b48a"] ;
274 -> 275 ;
276 [label=<age &le; 0.233<br/>gini = 0.458<br/>samples = 2360<br/>value = [1520, 840]<br/>class = d>, fillcolor="#f3c7a6"] ;
275 -> 276 ;
277 [label=<num_cc &le; 0.5<br/>gini = 0.381<br/>samples = 1720<br/>value = [1280, 440]<br/>class = d>, fillcolor="#eeac7d"] ;
276 -> 277 ;
278 [label=<years_at_present_employment &le; -0.75<br/>gini = 0.227<br/>samples = 920<br/>value = [800, 120]<br/>class = d>, fillcolor="#e99457"] ;
277 -> 278 ;
279 [label=<gini = 0.0<br/>samples = 40<br/>value = [0, 40]<br/>class = e>, fillcolor="#399de5"] ;
278 -> 279 ;
280 [label=<job &le; -0.5<br/>gini = 0.165<br/>samples = 880<br/>value = [800, 80]<br/>class = d>, fillcolor="#e88e4d"] ;
278 -> 280 ;
281 [label=<current_address_yrs &le; 0.25<br/>gini = 0.408<br/>samples = 280<br/>value = [200, 80]<br/>class = d>, fillcolor="#efb388"] ;
280 -> 281 ;
282 [label=<purposre_credit_taken &le; -0.5<br/>gini = 0.444<br/>samples = 120<br/>value = [40, 80]<br/>class = e>, fillcolor="#9ccef2"] ;
281 -> 282 ;
283 [label=<gini = 0.0<br/>samples = 40<br/>value = [40, 0]<br/>class = d>, fillcolor="#e58139"] ;
282 -> 283 ;
284 [label=<gini = 0.0<br/>samples = 80<br/>value = [0, 80]<br/>class = e>, fillcolor="#399de5"] ;
282 -> 284 ;
285 [label=<gini = 0.0<br/>samples = 160<br/>value = [160, 0]<br/>class = d>, fillcolor="#e58139"] ;
281 -> 285 ;
286 [label=<gini = 0.0<br/>samples = 600<br/>value = [600, 0]<br/>class = d>, fillcolor="#e58139"] ;
280 -> 286 ;
287 [label=<purposre_credit_taken &le; -0.833<br/>gini = 0.48<br/>samples = 800<br/>value = [480, 320]<br/>class = d>, fillcolor="#f6d5bd"] ;
277 -> 287 ;
288 [label=<age &le; 0.067<br/>gini = 0.32<br/>samples = 200<br/>value = [40, 160]<br/>class = e>, fillcolor="#6ab6ec"] ;
287 -> 288 ;
289 [label=<gini = 0.0<br/>samples = 160<br/>value = [0, 160]<br/>class = e>, fillcolor="#399de5"] ;
288 -> 289 ;
290 [label=<gini = 0.0<br/>samples = 40<br/>value = [40, 0]<br/>class = d>, fillcolor="#e58139"] ;
288 -> 290 ;
291 [label=<age &le; 0.1<br/>gini = 0.391<br/>samples = 600<br/>value = [440, 160]<br/>class = d>, fillcolor="#eeaf81"] ;
287 -> 291 ;
292 [label=<current_address_yrs &le; 0.25<br/>gini = 0.26<br/>samples = 520<br/>value = [440, 80]<br/>class = d>, fillcolor="#ea985d"] ;
291 -> 292 ;
293 [label=<purposre_credit_taken &le; 1.167<br/>gini = 0.153<br/>samples = 480<br/>value = [440, 40]<br/>class = d>, fillcolor="#e78c4b"] ;
292 -> 293 ;
294 [label=<gini = 0.0<br/>samples = 400<br/>value = [400, 0]<br/>class = d>, fillcolor="#e58139"] ;
293 -> 294 ;
295 [label=<years_at_present_employment &le; 0.0<br/>gini = 0.5<br/>samples = 80<br/>value = [40, 40]<br/>class = d>, fillcolor="#ffffff"] ;
293 -> 295 ;
296 [label=<gini = 0.0<br/>samples = 40<br/>value = [0, 40]<br/>class = e>, fillcolor="#399de5"] ;
295 -> 296 ;
297 [label=<gini = 0.0<br/>samples = 40<br/>value = [40, 0]<br/>class = d>, fillcolor="#e58139"] ;
295 -> 297 ;
298 [label=<gini = 0.0<br/>samples = 40<br/>value = [0, 40]<br/>class = e>, fillcolor="#399de5"] ;
292 -> 298 ;
299 [label=<gini = 0.0<br/>samples = 80<br/>value = [0, 80]<br/>class = e>, fillcolor="#399de5"] ;
291 -> 299 ;
300 [label=<purposre_credit_taken &le; 0.833<br/>gini = 0.469<br/>samples = 640<br/>value = [240, 400]<br/>class = e>, fillcolor="#b0d8f5"] ;
276 -> 300 ;
301 [label=<status_checking_acc &le; 0.5<br/>gini = 0.496<br/>samples = 440<br/>value = [240, 200]<br/>class = d>, fillcolor="#fbeade"] ;
300 -> 301 ;
302 [label=<gini = 0.0<br/>samples = 120<br/>value = [0, 120]<br/>class = e>, fillcolor="#399de5"] ;
301 -> 302 ;
303 [label=<purposre_credit_taken &le; -0.833<br/>gini = 0.375<br/>samples = 320<br/>value = [240, 80]<br/>class = d>, fillcolor="#eeab7b"] ;
301 -> 303 ;
304 [label=<marital_status_gender &le; -0.5<br/>gini = 0.444<br/>samples = 120<br/>value = [40, 80]<br/>class = e>, fillcolor="#9ccef2"] ;
303 -> 304 ;
305 [label=<gini = 0.0<br/>samples = 40<br/>value = [40, 0]<br/>class = d>, fillcolor="#e58139"] ;
304 -> 305 ;
306 [label=<gini = 0.0<br/>samples = 80<br/>value = [0, 80]<br/>class = e>, fillcolor="#399de5"] ;
304 -> 306 ;
307 [label=<gini = 0.0<br/>samples = 200<br/>value = [200, 0]<br/>class = d>, fillcolor="#e58139"] ;
303 -> 307 ;
308 [label=<gini = 0.0<br/>samples = 200<br/>value = [0, 200]<br/>class = e>, fillcolor="#399de5"] ;
300 -> 308 ;
309 [label=<property &le; -0.25<br/>gini = 0.111<br/>samples = 680<br/>value = [640, 40]<br/>class = d>, fillcolor="#e78945"] ;
275 -> 309 ;
310 [label=<gini = 0.0<br/>samples = 40<br/>value = [0, 40]<br/>class = e>, fillcolor="#399de5"] ;
309 -> 310 ;
311 [label=<gini = 0.0<br/>samples = 640<br/>value = [640, 0]<br/>class = d>, fillcolor="#e58139"] ;
309 -> 311 ;
312 [label=<years_at_present_employment &le; -0.25<br/>gini = 0.18<br/>samples = 15240<br/>value = [13720, 1520]<br/>class = d>, fillcolor="#e88f4f"] ;
274 -> 312 ;
313 [label=<credit_amount &le; 1.684<br/>gini = 0.334<br/>samples = 2640<br/>value = [2080, 560]<br/>class = d>, fillcolor="#eca36e"] ;
312 -> 313 ;
314 [label=<other_debtors_guarantors &le; 0.5<br/>gini = 0.271<br/>samples = 2480<br/>value = [2080, 400]<br/>class = d>, fillcolor="#ea995f"] ;
313 -> 314 ;
315 [label=<credit_history &le; -0.25<br/>gini = 0.212<br/>samples = 2320<br/>value = [2040, 280]<br/>class = d>, fillcolor="#e99254"] ;
314 -> 315 ;
316 [label=<credit_amount &le; 0.573<br/>gini = 0.444<br/>samples = 120<br/>value = [40, 80]<br/>class = e>, fillcolor="#9ccef2"] ;
315 -> 316 ;
317 [label=<gini = 0.0<br/>samples = 80<br/>value = [0, 80]<br/>class = e>, fillcolor="#399de5"] ;
316 -> 317 ;
318 [label=<gini = 0.0<br/>samples = 40<br/>value = [40, 0]<br/>class = d>, fillcolor="#e58139"] ;
316 -> 318 ;
319 [label=<credit_amount &le; 1.292<br/>gini = 0.165<br/>samples = 2200<br/>value = [2000, 200]<br/>class = d>, fillcolor="#e88e4d"] ;
315 -> 319 ;
320 [label=<purposre_credit_taken &le; 0.833<br/>gini = 0.137<br/>samples = 2160<br/>value = [2000, 160]<br/>class = d>, fillcolor="#e78b49"] ;
319 -> 320 ;
321 [label=<credit_amount &le; 0.876<br/>gini = 0.081<br/>samples = 1880<br/>value = [1800, 80]<br/>class = d>, fillcolor="#e68742"] ;
320 -> 321 ;
322 [label=<status_checking_acc &le; 0.5<br/>gini = 0.045<br/>samples = 1720<br/>value = [1680, 40]<br/>class = d>, fillcolor="#e6843e"] ;
321 -> 322 ;
323 [label=<purposre_credit_taken &le; 0.167<br/>gini = 0.278<br/>samples = 240<br/>value = [200, 40]<br/>class = d>, fillcolor="#ea9a61"] ;
322 -> 323 ;
324 [label=<gini = 0.0<br/>samples = 200<br/>value = [200, 0]<br/>class = d>, fillcolor="#e58139"] ;
323 -> 324 ;
325 [label=<gini = 0.0<br/>samples = 40<br/>value = [0, 40]<br/>class = e>, fillcolor="#399de5"] ;
323 -> 325 ;
326 [label=<gini = 0.0<br/>samples = 1480<br/>value = [1480, 0]<br/>class = d>, fillcolor="#e58139"] ;
322 -> 326 ;
327 [label=<duration_in_months &le; -0.625<br/>gini = 0.375<br/>samples = 160<br/>value = [120, 40]<br/>class = d>, fillcolor="#eeab7b"] ;
321 -> 327 ;
328 [label=<gini = 0.0<br/>samples = 40<br/>value = [0, 40]<br/>class = e>, fillcolor="#399de5"] ;
327 -> 328 ;
329 [label=<gini = 0.0<br/>samples = 120<br/>value = [120, 0]<br/>class = d>, fillcolor="#e58139"] ;
327 -> 329 ;
330 [label=<credit_amount &le; -0.222<br/>gini = 0.408<br/>samples = 280<br/>value = [200, 80]<br/>class = d>, fillcolor="#efb388"] ;
320 -> 330 ;
331 [label=<gini = 0.0<br/>samples = 160<br/>value = [160, 0]<br/>class = d>, fillcolor="#e58139"] ;
330 -> 331 ;
332 [label=<savings_acc &le; 1.0<br/>gini = 0.444<br/>samples = 120<br/>value = [40, 80]<br/>class = e>, fillcolor="#9ccef2"] ;
330 -> 332 ;
333 [label=<gini = 0.0<br/>samples = 80<br/>value = [0, 80]<br/>class = e>, fillcolor="#399de5"] ;
332 -> 333 ;
334 [label=<gini = 0.0<br/>samples = 40<br/>value = [40, 0]<br/>class = d>, fillcolor="#e58139"] ;
332 -> 334 ;
335 [label=<gini = 0.0<br/>samples = 40<br/>value = [0, 40]<br/>class = e>, fillcolor="#399de5"] ;
319 -> 335 ;
336 [label=<inst_rt_income &le; -0.75<br/>gini = 0.375<br/>samples = 160<br/>value = [40, 120]<br/>class = e>, fillcolor="#7bbeee"] ;
314 -> 336 ;
337 [label=<gini = 0.0<br/>samples = 40<br/>value = [40, 0]<br/>class = d>, fillcolor="#e58139"] ;
336 -> 337 ;
338 [label=<gini = 0.0<br/>samples = 120<br/>value = [0, 120]<br/>class = e>, fillcolor="#399de5"] ;
336 -> 338 ;
339 [label=<gini = 0.0<br/>samples = 160<br/>value = [0, 160]<br/>class = e>, fillcolor="#399de5"] ;
313 -> 339 ;
340 [label=<age &le; -0.167<br/>gini = 0.141<br/>samples = 12600<br/>value = [11640, 960]<br/>class = d>, fillcolor="#e78b49"] ;
312 -> 340 ;
341 [label=<inst_rt_income &le; 0.25<br/>gini = 0.235<br/>samples = 4120<br/>value = [3560, 560]<br/>class = d>, fillcolor="#e99558"] ;
340 -> 341 ;
342 [label=<marital_status_gender &le; -0.5<br/>gini = 0.097<br/>samples = 2360<br/>value = [2240, 120]<br/>class = d>, fillcolor="#e68844"] ;
341 -> 342 ;
343 [label=<purposre_credit_taken &le; -0.833<br/>gini = 0.211<br/>samples = 1000<br/>value = [880, 120]<br/>class = d>, fillcolor="#e99254"] ;
342 -> 343 ;
344 [label=<property &le; 0.25<br/>gini = 0.48<br/>samples = 200<br/>value = [120, 80]<br/>class = d>, fillcolor="#f6d5bd"] ;
343 -> 344 ;
345 [label=<gini = 0.0<br/>samples = 80<br/>value = [0, 80]<br/>class = e>, fillcolor="#399de5"] ;
344 -> 345 ;
346 [label=<gini = 0.0<br/>samples = 120<br/>value = [120, 0]<br/>class = d>, fillcolor="#e58139"] ;
344 -> 346 ;
347 [label=<status_checking_acc &le; 0.5<br/>gini = 0.095<br/>samples = 800<br/>value = [760, 40]<br/>class = d>, fillcolor="#e68843"] ;
343 -> 347 ;
348 [label=<gini = 0.0<br/>samples = 40<br/>value = [0, 40]<br/>class = e>, fillcolor="#399de5"] ;
347 -> 348 ;
349 [label=<gini = 0.0<br/>samples = 760<br/>value = [760, 0]<br/>class = d>, fillcolor="#e58139"] ;
347 -> 349 ;
350 [label=<gini = 0.0<br/>samples = 1360<br/>value = [1360, 0]<br/>class = d>, fillcolor="#e58139"] ;
342 -> 350 ;
351 [label=<duration_in_months &le; 0.292<br/>gini = 0.375<br/>samples = 1760<br/>value = [1320, 440]<br/>class = d>, fillcolor="#eeab7b"] ;
341 -> 351 ;
352 [label=<age &le; -0.233<br/>gini = 0.472<br/>samples = 840<br/>value = [520, 320]<br/>class = d>, fillcolor="#f5cfb3"] ;
351 -> 352 ;
353 [label=<years_at_present_employment &le; 0.25<br/>gini = 0.432<br/>samples = 760<br/>value = [520, 240]<br/>class = d>, fillcolor="#f1bb94"] ;
352 -> 353 ;
354 [label=<current_address_yrs &le; 0.25<br/>gini = 0.337<br/>samples = 560<br/>value = [440, 120]<br/>class = d>, fillcolor="#eca36f"] ;
353 -> 354 ;
355 [label=<marital_status_gender &le; 0.5<br/>gini = 0.153<br/>samples = 480<br/>value = [440, 40]<br/>class = d>, fillcolor="#e78c4b"] ;
354 -> 355 ;
356 [label=<gini = 0.0<br/>samples = 400<br/>value = [400, 0]<br/>class = d>, fillcolor="#e58139"] ;
355 -> 356 ;
357 [label=<duration_in_months &le; -0.25<br/>gini = 0.5<br/>samples = 80<br/>value = [40, 40]<br/>class = d>, fillcolor="#ffffff"] ;
355 -> 357 ;
358 [label=<gini = 0.0<br/>samples = 40<br/>value = [40, 0]<br/>class = d>, fillcolor="#e58139"] ;
357 -> 358 ;
359 [label=<gini = 0.0<br/>samples = 40<br/>value = [0, 40]<br/>class = e>, fillcolor="#399de5"] ;
357 -> 359 ;
360 [label=<gini = 0.0<br/>samples = 80<br/>value = [0, 80]<br/>class = e>, fillcolor="#399de5"] ;
354 -> 360 ;
361 [label=<savings_acc &le; 1.5<br/>gini = 0.48<br/>samples = 200<br/>value = [80, 120]<br/>class = e>, fillcolor="#bddef6"] ;
353 -> 361 ;
362 [label=<gini = 0.0<br/>samples = 120<br/>value = [0, 120]<br/>class = e>, fillcolor="#399de5"] ;
361 -> 362 ;
363 [label=<gini = 0.0<br/>samples = 80<br/>value = [80, 0]<br/>class = d>, fillcolor="#e58139"] ;
361 -> 363 ;
364 [label=<gini = 0.0<br/>samples = 80<br/>value = [0, 80]<br/>class = e>, fillcolor="#399de5"] ;
352 -> 364 ;
365 [label=<duration_in_months &le; 1.25<br/>gini = 0.227<br/>samples = 920<br/>value = [800, 120]<br/>class = d>, fillcolor="#e99457"] ;
351 -> 365 ;
366 [label=<gini = 0.0<br/>samples = 560<br/>value = [560, 0]<br/>class = d>, fillcolor="#e58139"] ;
365 -> 366 ;
367 [label=<telephone &le; 0.5<br/>gini = 0.444<br/>samples = 360<br/>value = [240, 120]<br/>class = d>, fillcolor="#f2c09c"] ;
365 -> 367 ;
368 [label=<status_checking_acc &le; 0.5<br/>gini = 0.278<br/>samples = 240<br/>value = [200, 40]<br/>class = d>, fillcolor="#ea9a61"] ;
367 -> 368 ;
369 [label=<current_address_yrs &le; -0.75<br/>gini = 0.5<br/>samples = 80<br/>value = [40, 40]<br/>class = d>, fillcolor="#ffffff"] ;
368 -> 369 ;
370 [label=<gini = 0.0<br/>samples = 40<br/>value = [40, 0]<br/>class = d>, fillcolor="#e58139"] ;
369 -> 370 ;
371 [label=<gini = 0.0<br/>samples = 40<br/>value = [0, 40]<br/>class = e>, fillcolor="#399de5"] ;
369 -> 371 ;
372 [label=<gini = 0.0<br/>samples = 160<br/>value = [160, 0]<br/>class = d>, fillcolor="#e58139"] ;
368 -> 372 ;
373 [label=<credit_history &le; 0.75<br/>gini = 0.444<br/>samples = 120<br/>value = [40, 80]<br/>class = e>, fillcolor="#9ccef2"] ;
367 -> 373 ;
374 [label=<gini = 0.0<br/>samples = 80<br/>value = [0, 80]<br/>class = e>, fillcolor="#399de5"] ;
373 -> 374 ;
375 [label=<gini = 0.0<br/>samples = 40<br/>value = [40, 0]<br/>class = d>, fillcolor="#e58139"] ;
373 -> 375 ;
376 [label=<status_checking_acc &le; 0.5<br/>gini = 0.09<br/>samples = 8480<br/>value = [8080, 400]<br/>class = d>, fillcolor="#e68743"] ;
340 -> 376 ;
377 [label=<dependents &le; 0.5<br/>gini = 0.26<br/>samples = 1040<br/>value = [880, 160]<br/>class = d>, fillcolor="#ea985d"] ;
376 -> 377 ;
378 [label=<purposre_credit_taken &le; 1.667<br/>gini = 0.165<br/>samples = 880<br/>value = [800, 80]<br/>class = d>, fillcolor="#e88e4d"] ;
377 -> 378 ;
379 [label=<savings_acc &le; 1.75<br/>gini = 0.095<br/>samples = 800<br/>value = [760, 40]<br/>class = d>, fillcolor="#e68843"] ;
378 -> 379 ;
380 [label=<gini = 0.0<br/>samples = 640<br/>value = [640, 0]<br/>class = d>, fillcolor="#e58139"] ;
379 -> 380 ;
381 [label=<property &le; 0.75<br/>gini = 0.375<br/>samples = 160<br/>value = [120, 40]<br/>class = d>, fillcolor="#eeab7b"] ;
379 -> 381 ;
382 [label=<gini = 0.0<br/>samples = 120<br/>value = [120, 0]<br/>class = d>, fillcolor="#e58139"] ;
381 -> 382 ;
383 [label=<gini = 0.0<br/>samples = 40<br/>value = [0, 40]<br/>class = e>, fillcolor="#399de5"] ;
381 -> 383 ;
384 [label=<age &le; 0.733<br/>gini = 0.5<br/>samples = 80<br/>value = [40, 40]<br/>class = d>, fillcolor="#ffffff"] ;
378 -> 384 ;
385 [label=<gini = 0.0<br/>samples = 40<br/>value = [40, 0]<br/>class = d>, fillcolor="#e58139"] ;
384 -> 385 ;
386 [label=<gini = 0.0<br/>samples = 40<br/>value = [0, 40]<br/>class = e>, fillcolor="#399de5"] ;
384 -> 386 ;
387 [label=<foreign_worker &le; 0.5<br/>gini = 0.5<br/>samples = 160<br/>value = [80, 80]<br/>class = d>, fillcolor="#ffffff"] ;
377 -> 387 ;
388 [label=<gini = 0.0<br/>samples = 80<br/>value = [0, 80]<br/>class = e>, fillcolor="#399de5"] ;
387 -> 388 ;
389 [label=<gini = 0.0<br/>samples = 80<br/>value = [80, 0]<br/>class = d>, fillcolor="#e58139"] ;
387 -> 389 ;
390 [label=<credit_history &le; 0.75<br/>gini = 0.062<br/>samples = 7440<br/>value = [7200, 240]<br/>class = d>, fillcolor="#e68540"] ;
376 -> 390 ;
391 [label=<num_cc &le; 0.5<br/>gini = 0.116<br/>samples = 3879<br/>value = [3639, 240]<br/>class = d>, fillcolor="#e78946"] ;
390 -> 391 ;
392 [label=<purposre_credit_taken &le; 1.0<br/>gini = 0.027<br/>samples = 2959<br/>value = [2919, 40]<br/>class = d>, fillcolor="#e5833c"] ;
391 -> 392 ;
393 [label=<gini = 0.0<br/>samples = 2599<br/>value = [2599, 0]<br/>class = d>, fillcolor="#e58139"] ;
392 -> 393 ;
394 [label=<job &le; 0.5<br/>gini = 0.198<br/>samples = 360<br/>value = [320, 40]<br/>class = d>, fillcolor="#e89152"] ;
392 -> 394 ;
395 [label=<gini = 0.0<br/>samples = 320<br/>value = [320, 0]<br/>class = d>, fillcolor="#e58139"] ;
394 -> 395 ;
396 [label=<gini = 0.0<br/>samples = 40<br/>value = [0, 40]<br/>class = e>, fillcolor="#399de5"] ;
394 -> 396 ;
397 [label=<age &le; 0.867<br/>gini = 0.34<br/>samples = 920<br/>value = [720, 200]<br/>class = d>, fillcolor="#eca470"] ;
391 -> 397 ;
398 [label=<age &le; -0.1<br/>gini = 0.124<br/>samples = 600<br/>value = [560, 40]<br/>class = d>, fillcolor="#e78a47"] ;
397 -> 398 ;
399 [label=<current_address_yrs &le; 0.0<br/>gini = 0.444<br/>samples = 120<br/>value = [80, 40]<br/>class = d>, fillcolor="#f2c09c"] ;
398 -> 399 ;
400 [label=<gini = 0.0<br/>samples = 80<br/>value = [80, 0]<br/>class = d>, fillcolor="#e58139"] ;
399 -> 400 ;
401 [label=<gini = 0.0<br/>samples = 40<br/>value = [0, 40]<br/>class = e>, fillcolor="#399de5"] ;
399 -> 401 ;
402 [label=<gini = 0.0<br/>samples = 480<br/>value = [480, 0]<br/>class = d>, fillcolor="#e58139"] ;
398 -> 402 ;
403 [label=<years_at_present_employment &le; 0.5<br/>gini = 0.5<br/>samples = 320<br/>value = [160, 160]<br/>class = d>, fillcolor="#ffffff"] ;
397 -> 403 ;
404 [label=<gini = 0.0<br/>samples = 80<br/>value = [0, 80]<br/>class = e>, fillcolor="#399de5"] ;
403 -> 404 ;
405 [label=<dependents &le; 0.5<br/>gini = 0.444<br/>samples = 240<br/>value = [160, 80]<br/>class = d>, fillcolor="#f2c09c"] ;
403 -> 405 ;
406 [label=<gini = 0.0<br/>samples = 120<br/>value = [120, 0]<br/>class = d>, fillcolor="#e58139"] ;
405 -> 406 ;
407 [label=<duration_in_months &le; 0.625<br/>gini = 0.444<br/>samples = 120<br/>value = [40, 80]<br/>class = e>, fillcolor="#9ccef2"] ;
405 -> 407 ;
408 [label=<gini = 0.0<br/>samples = 80<br/>value = [0, 80]<br/>class = e>, fillcolor="#399de5"] ;
407 -> 408 ;
409 [label=<gini = 0.0<br/>samples = 40<br/>value = [40, 0]<br/>class = d>, fillcolor="#e58139"] ;
407 -> 409 ;
410 [label=<gini = 0.0<br/>samples = 3561<br/>value = [3561, 0]<br/>class = d>, fillcolor="#e58139"] ;
390 -> 410 ;
}
